short group_4_0_weights[1536] = {202,
-33,
-30,
206,
-195,
-78,
0,
-111,
-97,
0,
0,
0,
175,
-58,
-79,
416,
-241,
-131,
238,
-226,
-88,
0,
0,
0,
15,
232,
76,
-17,
435,
-122,
33,
-62,
-99,
0,
0,
0,
-221,
45,
241,
-129,
-57,
255,
74,
-165,
159,
0,
0,
0,
-81,
-45,
-105,
312,
277,
234,
-234,
-132,
-138,
0,
0,
0,
43,
-72,
-33,
-11,
-210,
-12,
-49,
-183,
38,
0,
0,
0,
-80,
-100,
4,
-172,
-205,
-41,
-117,
-156,
-60,
0,
0,
0,
164,
211,
-17,
119,
445,
-6,
122,
392,
-61,
0,
0,
0,
195,
215,
193,
-81,
20,
52,
-186,
-215,
-147,
0,
0,
0,
-280,
-63,
-43,
-150,
136,
-56,
-113,
134,
-55,
0,
0,
0,
52,
285,
64,
50,
321,
166,
22,
17,
26,
0,
0,
0,
108,
125,
101,
96,
191,
83,
94,
133,
67,
0,
0,
0,
-29,
-235,
-187,
-241,
-149,
118,
-283,
286,
382,
0,
0,
0,
84,
130,
29,
128,
258,
186,
37,
164,
64,
0,
0,
0,
177,
243,
215,
152,
285,
319,
57,
172,
129,
0,
0,
0,
18,
-151,
189,
35,
-397,
215,
-26,
-8,
124,
0,
0,
0,
190,
-48,
-202,
-109,
-342,
462,
-75,
-33,
236,
0,
0,
0,
-83,
-92,
30,
-53,
-195,
22,
130,
605,
-193,
0,
0,
0,
115,
195,
132,
107,
246,
213,
169,
147,
104,
0,
0,
0,
-23,
262,
72,
203,
-16,
-69,
-119,
-145,
-111,
0,
0,
0,
-86,
16,
-75,
185,
74,
82,
288,
101,
248,
0,
0,
0,
-83,
-142,
-91,
1,
-116,
-115,
96,
163,
216,
0,
0,
0,
166,
138,
-86,
180,
244,
98,
-96,
120,
130,
0,
0,
0,
70,
100,
50,
198,
294,
206,
133,
103,
128,
0,
0,
0,
199,
27,
2,
372,
-88,
34,
338,
-118,
50,
0,
0,
0,
-137,
-187,
-21,
-208,
-243,
-133,
-66,
-92,
-8,
0,
0,
0,
184,
224,
136,
-109,
-125,
-151,
-108,
-162,
-7,
0,
0,
0,
150,
151,
-84,
180,
165,
-27,
188,
131,
-81,
0,
0,
0,
-69,
8,
106,
2,
121,
145,
172,
199,
213,
0,
0,
0,
-129,
465,
-39,
-394,
217,
104,
-165,
-138,
31,
0,
0,
0,
-248,
-119,
-115,
192,
-227,
-217,
650,
-149,
-249,
0,
0,
0,
-347,
16,
537,
-20,
-80,
13,
250,
-40,
-251,
0,
0,
0,
297,
456,
14,
-188,
-125,
113,
-123,
-85,
-60,
0,
0,
0,
49,
-259,
-159,
0,
-13,
-116,
2,
38,
2,
0,
0,
0,
-447,
5,
439,
137,
-83,
9,
129,
92,
-169,
0,
0,
0,
194,
320,
92,
405,
496,
157,
-2,
-36,
29,
0,
0,
0,
-62,
-129,
-83,
-95,
-191,
-77,
-53,
-68,
-50,
0,
0,
0,
253,
196,
187,
-88,
-63,
-42,
-137,
-75,
-84,
0,
0,
0,
-21,
80,
-36,
-208,
27,
53,
104,
372,
392,
0,
0,
0,
-20,
-21,
9,
90,
216,
32,
-128,
-190,
-100,
0,
0,
0,
-77,
-167,
-89,
134,
177,
231,
62,
63,
122,
0,
0,
0,
-90,
-28,
157,
-204,
-166,
414,
-166,
-93,
336,
0,
0,
0,
57,
-127,
-130,
180,
411,
-38,
-241,
146,
-19,
0,
0,
0,
-91,
-130,
-55,
-142,
-191,
-103,
-26,
-40,
6,
0,
0,
0,
-65,
-58,
-22,
90,
32,
205,
275,
251,
361,
0,
0,
0,
120,
-96,
17,
405,
-204,
5,
139,
-34,
47,
0,
0,
0,
153,
-19,
-249,
281,
30,
-278,
123,
-28,
-77,
0,
0,
0,
-131,
-191,
0,
-62,
-193,
-18,
-23,
24,
-33,
0,
0,
0,
-211,
-57,
68,
-266,
134,
62,
-235,
343,
-71,
0,
0,
0,
133,
-58,
-56,
498,
-211,
87,
316,
-237,
-128,
0,
0,
0,
8,
-12,
44,
-86,
-133,
-108,
-97,
-170,
-85,
0,
0,
0,
6,
-122,
80,
-144,
254,
244,
187,
63,
-388,
0,
0,
0,
-102,
-150,
-44,
334,
350,
184,
-229,
-198,
-220,
0,
0,
0,
-28,
137,
146,
-225,
-210,
285,
-118,
-212,
121,
0,
0,
0,
-314,
-198,
-184,
116,
23,
74,
143,
123,
-6,
0,
0,
0,
-102,
-38,
-45,
-272,
620,
-88,
-18,
132,
-26,
0,
0,
0,
128,
331,
73,
-155,
-296,
-128,
-40,
-53,
-2,
0,
0,
0,
29,
211,
-146,
667,
341,
-433,
157,
60,
-75,
0,
0,
0,
-207,
-213,
-198,
-121,
104,
-30,
181,
204,
146,
0,
0,
0,
62,
116,
-362,
6,
140,
-301,
59,
74,
-258,
0,
0,
0,
-73,
-55,
286,
-87,
-78,
147,
-5,
-59,
225,
0,
0,
0,
244,
270,
169,
-127,
-80,
-90,
-81,
-90,
-97,
0,
0,
0,
-7,
-122,
-35,
-23,
-163,
-57,
-103,
-160,
-65,
0,
0,
0,
61,
52,
-24,
251,
165,
74,
168,
158,
70,
0,
0,
0,
76,
49,
71,
146,
176,
130,
255,
184,
117,
0,
0,
0,
267,
95,
-32,
150,
689,
-43,
-434,
411,
311,
0,
0,
0,
135,
160,
81,
222,
217,
139,
136,
120,
76,
0,
0,
0,
231,
252,
43,
155,
332,
199,
40,
137,
32,
0,
0,
0,
-19,
36,
8,
186,
143,
149,
176,
123,
172,
0,
0,
0,
-108,
49,
66,
532,
-346,
-189,
-184,
192,
40,
0,
0,
0,
154,
182,
118,
163,
289,
271,
118,
439,
272,
0,
0,
0,
170,
157,
117,
230,
223,
38,
390,
299,
20,
0,
0,
0,
112,
71,
-52,
141,
149,
-23,
221,
18,
-49,
0,
0,
0,
-273,
-228,
122,
15,
200,
-2,
130,
-31,
-88,
0,
0,
0,
-72,
-59,
-39,
-130,
-215,
-74,
-22,
-46,
-46,
0,
0,
0,
-186,
-174,
-3,
151,
315,
90,
33,
-34,
86,
0,
0,
0,
-28,
295,
555,
-58,
-109,
338,
-177,
-120,
-107,
0,
0,
0,
220,
152,
106,
44,
-3,
17,
-147,
-119,
-60,
0,
0,
0,
-29,
193,
13,
203,
66,
-341,
161,
-154,
-192,
0,
0,
0,
98,
-169,
-122,
272,
139,
-293,
53,
174,
-149,
0,
0,
0,
147,
188,
212,
-145,
-40,
-30,
-45,
7,
-112,
0,
0,
0,
38,
205,
-110,
-82,
290,
-256,
-53,
83,
-187,
0,
0,
0,
-507,
418,
3,
-308,
221,
8,
-274,
75,
21,
0,
0,
0,
-102,
-3,
-9,
382,
88,
-378,
437,
-193,
-254,
0,
0,
0,
105,
151,
217,
60,
247,
133,
54,
17,
119,
0,
0,
0,
-27,
82,
52,
95,
325,
146,
-30,
-22,
-46,
0,
0,
0,
-376,
-63,
-68,
-38,
85,
55,
4,
41,
10,
0,
0,
0,
248,
143,
216,
-17,
-55,
20,
-66,
32,
0,
0,
0,
0,
-15,
37,
1,
-36,
61,
35,
-250,
-65,
-247,
0,
0,
0,
188,
300,
116,
98,
-138,
-195,
-37,
-260,
-96,
0,
0,
0,
213,
305,
301,
199,
226,
160,
225,
16,
-88,
0,
0,
0,
-244,
29,
258,
-298,
5,
205,
-124,
-27,
154,
0,
0,
0,
-61,
-65,
-51,
-52,
-149,
-92,
-104,
-138,
-90,
0,
0,
0,
175,
227,
197,
17,
286,
178,
70,
-44,
24,
0,
0,
0,
-187,
-42,
236,
-53,
346,
-133,
171,
-43,
-261,
0,
0,
0,
275,
176,
57,
257,
270,
103,
-56,
-18,
1,
0,
0,
0,
117,
150,
-442,
46,
159,
-283,
60,
111,
-202,
0,
0,
0,
0,
138,
51,
284,
421,
369,
159,
262,
53,
0,
0,
0,
351,
239,
129,
315,
151,
112,
118,
-60,
-17,
0,
0,
0,
-32,
8,
50,
-266,
-22,
324,
-329,
-45,
300,
0,
0,
0,
84,
-71,
-71,
510,
-223,
-125,
265,
-58,
-44,
0,
0,
0,
147,
310,
158,
37,
144,
-11,
-159,
-221,
-216,
0,
0,
0,
220,
216,
195,
101,
131,
48,
-36,
16,
14,
0,
0,
0,
-79,
-214,
-41,
194,
267,
157,
-115,
-103,
-41,
0,
0,
0,
96,
98,
37,
176,
201,
89,
-151,
-14,
-107,
0,
0,
0,
178,
128,
34,
140,
175,
110,
163,
120,
163,
0,
0,
0,
322,
-119,
-248,
363,
-101,
-211,
141,
26,
-112,
0,
0,
0,
115,
125,
2,
177,
304,
89,
86,
211,
-14,
0,
0,
0,
143,
215,
194,
211,
79,
-77,
3,
-442,
-488,
0,
0,
0,
168,
294,
299,
20,
250,
320,
-30,
-28,
90,
0,
0,
0,
-87,
-9,
58,
64,
0,
-328,
247,
280,
-599,
0,
0,
0,
-104,
-15,
41,
-335,
-10,
-19,
-113,
-71,
-61,
0,
0,
0,
-265,
-57,
-251,
79,
293,
85,
112,
150,
44,
0,
0,
0,
-53,
-144,
-63,
-27,
-139,
-101,
146,
130,
116,
0,
0,
0,
168,
305,
186,
-1,
-39,
-51,
-9,
36,
-12,
0,
0,
0,
-223,
-78,
257,
-160,
-45,
211,
-112,
-53,
135,
0,
0,
0,
148,
185,
-181,
-103,
155,
200,
-38,
-86,
12,
0,
0,
0,
-187,
-250,
-93,
289,
325,
1,
-65,
-103,
-2,
0,
0,
0,
23,
31,
25,
8,
-27,
-56,
-104,
-166,
-228,
0,
0,
0,
-66,
-20,
-18,
-57,
-68,
-61,
-96,
-119,
-171,
0,
0,
0,
9,
-59,
-173,
-10,
-60,
-235,
12,
41,
-98,
0,
0,
0,
-9,
-99,
-5,
20,
383,
45,
-50,
-331,
-55,
0,
0,
0,
-198,
-183,
-236,
63,
89,
96,
63,
68,
119,
0,
0,
0,
-140,
-282,
-120,
-135,
243,
366,
14,
-3,
-138,
0,
0,
0,
-141,
-295,
-401,
110,
326,
366,
194,
51,
109,
0,
0,
0,
74,
-35,
48,
152,
56,
311,
-358,
-301,
-86,
0,
0,
0,
-11,
-28,
-61,
-210,
-236,
-46,
-85,
-69,
-32,
0,
0,
0,
-147,
-78,
-8,
-155,
-200,
-59,
-93,
-195,
-148,
0,
0,
0}
