short group_2_0_weights[384] = {-46,
14,
58,
-298,
-270,
-131,
-62,
-104,
-85,
0,
0,
0,
-78,
-422,
-257,
-131,
-25,
-155,
231,
457,
356,
0,
0,
0,
-265,
-178,
-179,
-212,
-454,
-221,
-30,
-300,
-76,
0,
0,
0,
910,
207,
-349,
945,
601,
-372,
378,
976,
-80,
0,
0,
0,
346,
480,
118,
228,
278,
264,
-113,
76,
-66,
0,
0,
0,
31,
236,
-47,
522,
410,
316,
161,
299,
124,
0,
0,
0,
-8,
661,
440,
610,
701,
155,
451,
93,
-70,
0,
0,
0,
-62,
-224,
-196,
-188,
-293,
-183,
-351,
-273,
-139,
0,
0,
0,
195,
311,
-148,
-494,
269,
593,
-680,
-320,
313,
0,
0,
0,
249,
687,
47,
-454,
311,
450,
-504,
-470,
145,
0,
0,
0,
152,
71,
-34,
-146,
-32,
238,
-379,
-436,
-243,
0,
0,
0,
52,
-148,
-72,
62,
-397,
-348,
-9,
-274,
-64,
0,
0,
0,
102,
5,
-305,
-244,
-152,
110,
-111,
-37,
45,
0,
0,
0,
301,
147,
-17,
166,
390,
216,
174,
96,
468,
0,
0,
0,
169,
256,
17,
207,
397,
306,
31,
76,
177,
0,
0,
0,
89,
792,
293,
576,
1244,
373,
-196,
69,
-55,
0,
0,
0,
303,
592,
228,
256,
669,
536,
43,
120,
128,
0,
0,
0,
-170,
-123,
-81,
-168,
-227,
-232,
-100,
-109,
-112,
0,
0,
0,
-393,
-340,
-138,
-188,
-509,
-396,
-39,
-152,
-344,
0,
0,
0,
-167,
-51,
95,
-299,
-129,
206,
-325,
-85,
241,
0,
0,
0,
391,
453,
360,
-106,
-291,
-193,
-263,
-263,
-334,
0,
0,
0,
-1,
-278,
-204,
-210,
-453,
-256,
-152,
-166,
-101,
0,
0,
0,
169,
283,
472,
560,
448,
-141,
215,
315,
-533,
0,
0,
0,
429,
229,
-12,
34,
-192,
-133,
-472,
-490,
-241,
0,
0,
0,
-223,
-285,
-65,
-161,
-211,
-209,
-13,
-19,
-20,
0,
0,
0,
-7,
19,
58,
175,
356,
89,
174,
398,
416,
0,
0,
0,
142,
109,
182,
-45,
-55,
-249,
-171,
-299,
-102,
0,
0,
0,
-34,
-322,
-107,
-170,
-263,
-125,
95,
-20,
145,
0,
0,
0,
4,
-192,
-103,
-342,
-150,
325,
-569,
-131,
348,
0,
0,
0,
409,
-892,
321,
-576,
-676,
1099,
-664,
346,
783,
0,
0,
0,
27,
635,
-134,
-148,
118,
1145,
94,
333,
606,
0,
0,
0,
-91,
-210,
-322,
-292,
-176,
-162,
405,
664,
396,
0,
0,
0}
