short group_6_0_weights[3072] = {-268,
35,
173,
-190,
54,
94,
-57,
47,
70,
0,
0,
0,
286,
-110,
-5,
147,
-113,
-115,
252,
-90,
-100,
0,
0,
0,
-133,
-109,
-22,
136,
153,
-15,
304,
277,
174,
0,
0,
0,
-43,
-169,
-23,
-24,
379,
3,
68,
-49,
29,
0,
0,
0,
-359,
-107,
27,
-3,
21,
-1,
49,
15,
-12,
0,
0,
0,
-363,
552,
268,
133,
301,
29,
-114,
-67,
41,
0,
0,
0,
3,
4,
-5,
-46,
-55,
-38,
54,
111,
27,
0,
0,
0,
2,
57,
101,
-319,
63,
170,
-180,
-159,
-84,
0,
0,
0,
-38,
-128,
47,
-99,
-61,
207,
157,
257,
402,
0,
0,
0,
135,
148,
-10,
427,
-193,
-260,
249,
-66,
-181,
0,
0,
0,
459,
-163,
-66,
531,
246,
-151,
-6,
88,
-37,
0,
0,
0,
-39,
-82,
36,
-13,
281,
-87,
18,
-24,
-5,
0,
0,
0,
168,
141,
155,
60,
65,
19,
6,
4,
2,
0,
0,
0,
-35,
-75,
17,
-63,
83,
-17,
133,
175,
149,
0,
0,
0,
-129,
-36,
-146,
-151,
-114,
-43,
-86,
-53,
-65,
0,
0,
0,
-134,
258,
-129,
6,
255,
-95,
-16,
-24,
22,
0,
0,
0,
0,
0,
0,
0,
0,
0,
0,
0,
0,
0,
0,
0,
-122,
-37,
-142,
-88,
-107,
-102,
-93,
-65,
-50,
0,
0,
0,
-101,
-222,
-111,
-90,
-59,
32,
-44,
60,
12,
0,
0,
0,
-13,
22,
22,
198,
127,
91,
-277,
-221,
-142,
0,
0,
0,
-64,
0,
118,
75,
59,
140,
71,
-87,
-353,
0,
0,
0,
-15,
-37,
190,
-24,
-22,
377,
-6,
-32,
-5,
0,
0,
0,
-324,
-113,
9,
148,
-7,
86,
69,
0,
-8,
0,
0,
0,
427,
100,
-33,
258,
-49,
77,
20,
-22,
8,
0,
0,
0,
173,
93,
89,
107,
97,
123,
41,
73,
117,
0,
0,
0,
-111,
-43,
-59,
-34,
-50,
8,
311,
67,
161,
0,
0,
0,
206,
210,
204,
82,
155,
58,
38,
32,
32,
0,
0,
0,
173,
181,
323,
14,
-139,
4,
-14,
-43,
-62,
0,
0,
0,
0,
0,
0,
0,
0,
0,
0,
0,
0,
0,
0,
0,
11,
-85,
53,
-142,
652,
-227,
28,
212,
-193,
0,
0,
0,
368,
-52,
-24,
201,
-168,
-50,
-58,
-43,
-4,
0,
0,
0,
211,
155,
77,
141,
60,
45,
133,
68,
62,
0,
0,
0,
-10,
12,
15,
237,
72,
10,
328,
203,
45,
0,
0,
0,
-90,
-100,
-54,
-135,
-82,
88,
197,
286,
-84,
0,
0,
0,
-48,
72,
133,
34,
-162,
-19,
-190,
-57,
345,
0,
0,
0,
34,
-14,
-6,
128,
-40,
22,
388,
101,
44,
0,
0,
0,
330,
-51,
-221,
112,
-32,
-137,
93,
-30,
-95,
0,
0,
0,
77,
-119,
61,
373,
156,
57,
609,
350,
359,
0,
0,
0,
169,
89,
128,
98,
42,
183,
20,
33,
88,
0,
0,
0,
34,
-53,
37,
175,
175,
110,
305,
339,
216,
0,
0,
0,
-49,
-74,
4,
26,
144,
-71,
102,
526,
-212,
0,
0,
0,
-83,
-14,
6,
304,
-114,
-113,
218,
-44,
-113,
0,
0,
0,
-169,
-32,
128,
138,
-118,
-68,
249,
-14,
-268,
0,
0,
0,
-59,
-101,
-7,
-38,
-60,
-112,
198,
265,
128,
0,
0,
0,
172,
178,
115,
-42,
-18,
-45,
-154,
-99,
-86,
0,
0,
0,
-58,
6,
-54,
219,
-143,
-109,
372,
-200,
-191,
0,
0,
0,
-100,
35,
380,
30,
-53,
19,
29,
31,
-139,
0,
0,
0,
-34,
-84,
12,
-20,
126,
319,
110,
391,
540,
0,
0,
0,
-126,
-54,
7,
388,
48,
123,
103,
-50,
-119,
0,
0,
0,
2,
-45,
5,
-182,
178,
16,
-40,
-26,
-9,
0,
0,
0,
-75,
106,
-55,
-52,
94,
-105,
11,
21,
37,
0,
0,
0,
317,
98,
11,
221,
-43,
42,
-5,
81,
101,
0,
0,
0,
90,
5,
21,
97,
-164,
-92,
4,
-70,
-39,
0,
0,
0,
449,
87,
-71,
129,
-67,
-7,
-97,
-98,
27,
0,
0,
0,
-75,
82,
-23,
286,
-287,
83,
3,
-62,
-33,
0,
0,
0,
-82,
-180,
-202,
294,
271,
89,
470,
388,
264,
0,
0,
0,
197,
53,
11,
262,
16,
129,
177,
28,
106,
0,
0,
0,
229,
490,
101,
0,
-22,
-68,
-12,
10,
28,
0,
0,
0,
33,
-11,
-41,
-22,
-155,
194,
-21,
-4,
8,
0,
0,
0,
270,
193,
143,
230,
78,
49,
91,
-27,
32,
0,
0,
0,
329,
-126,
-158,
24,
-109,
90,
105,
-49,
-8,
0,
0,
0,
162,
160,
150,
30,
92,
82,
26,
12,
58,
0,
0,
0,
-77,
-71,
-59,
64,
36,
-1,
26,
38,
18,
0,
0,
0,
291,
265,
233,
158,
199,
95,
4,
32,
-36,
0,
0,
0,
39,
62,
-358,
46,
5,
-81,
23,
51,
42,
0,
0,
0,
0,
-29,
2,
-189,
-129,
4,
-60,
-40,
10,
0,
0,
0,
319,
-72,
-251,
-5,
-26,
79,
-82,
-11,
32,
0,
0,
0,
-186,
-169,
-213,
60,
28,
81,
118,
141,
77,
0,
0,
0,
-32,
11,
20,
253,
271,
140,
-76,
-112,
-14,
0,
0,
0,
-211,
-117,
-143,
407,
471,
383,
246,
435,
266,
0,
0,
0,
14,
-96,
-3,
317,
149,
171,
285,
288,
346,
0,
0,
0,
236,
173,
8,
232,
85,
-70,
131,
-35,
25,
0,
0,
0,
94,
-61,
-136,
-91,
-195,
413,
-35,
-95,
25,
0,
0,
0,
137,
173,
124,
-146,
-215,
-19,
-41,
-62,
31,
0,
0,
0,
307,
456,
-30,
19,
284,
-274,
-39,
-323,
-207,
0,
0,
0,
261,
-122,
-197,
168,
93,
-137,
32,
51,
69,
0,
0,
0,
-21,
13,
-17,
137,
114,
125,
152,
125,
133,
0,
0,
0,
19,
26,
55,
36,
39,
30,
-208,
-163,
-145,
0,
0,
0,
-77,
6,
273,
35,
405,
283,
121,
249,
-249,
0,
0,
0,
372,
277,
229,
23,
86,
-98,
-2,
64,
-119,
0,
0,
0,
-151,
-92,
-71,
-189,
-168,
-106,
3,
-32,
-58,
0,
0,
0,
-22,
-10,
16,
104,
246,
151,
82,
239,
203,
0,
0,
0,
-82,
-40,
-22,
-158,
-164,
-96,
-124,
-124,
-130,
0,
0,
0,
-5,
-185,
7,
-82,
82,
127,
-108,
635,
122,
0,
0,
0,
-27,
-4,
184,
38,
29,
257,
-37,
-8,
14,
0,
0,
0,
-87,
222,
-52,
53,
-354,
26,
27,
106,
3,
0,
0,
0,
58,
-113,
48,
86,
-25,
-16,
-80,
4,
9,
0,
0,
0,
-22,
287,
-251,
-35,
1,
-345,
-9,
-43,
8,
0,
0,
0,
21,
78,
111,
206,
208,
236,
175,
154,
94,
0,
0,
0,
-4,
12,
4,
-47,
-81,
-28,
-171,
-39,
454,
0,
0,
0,
-138,
-122,
362,
-124,
-61,
77,
40,
-58,
-52,
0,
0,
0,
-8,
150,
-26,
27,
70,
-9,
17,
28,
25,
0,
0,
0,
243,
272,
181,
280,
148,
237,
117,
149,
107,
0,
0,
0,
-127,
0,
199,
-90,
-175,
307,
-67,
-87,
110,
0,
0,
0,
22,
67,
-170,
76,
287,
345,
13,
7,
42,
0,
0,
0,
-14,
76,
62,
-121,
283,
342,
-1,
151,
253,
0,
0,
0,
-252,
-165,
-185,
-20,
93,
-63,
186,
97,
155,
0,
0,
0,
220,
154,
157,
-60,
6,
-134,
-59,
-52,
-30,
0,
0,
0,
97,
-84,
-75,
56,
-197,
-94,
20,
103,
56,
0,
0,
0,
-6,
361,
-360,
-20,
118,
-192,
-10,
45,
-188,
0,
0,
0,
199,
209,
219,
107,
143,
36,
162,
203,
74,
0,
0,
0,
-57,
-3,
-69,
158,
163,
149,
-111,
-179,
-93,
0,
0,
0,
222,
200,
499,
79,
18,
-54,
-20,
-51,
-125,
0,
0,
0,
-45,
98,
-13,
-28,
-227,
304,
75,
234,
-359,
0,
0,
0,
124,
31,
35,
452,
84,
291,
151,
44,
124,
0,
0,
0,
-13,
86,
82,
44,
74,
14,
36,
48,
105,
0,
0,
0,
90,
97,
43,
187,
344,
62,
-18,
-117,
23,
0,
0,
0,
-46,
-19,
-36,
87,
341,
9,
-102,
-214,
-8,
0,
0,
0,
-96,
-29,
-60,
-40,
-87,
104,
-305,
474,
267,
0,
0,
0,
100,
77,
64,
201,
220,
204,
30,
175,
20,
0,
0,
0,
200,
62,
32,
141,
-10,
44,
-2,
-41,
-28,
0,
0,
0,
-132,
-25,
-76,
-20,
-47,
-53,
215,
179,
132,
0,
0,
0,
305,
-86,
-9,
42,
15,
40,
195,
4,
37,
0,
0,
0,
28,
-83,
-7,
117,
-72,
-12,
366,
-19,
-50,
0,
0,
0,
233,
5,
217,
-22,
10,
5,
64,
-42,
35,
0,
0,
0,
-79,
65,
149,
-132,
-158,
293,
-136,
27,
411,
0,
0,
0,
-214,
88,
95,
-261,
199,
256,
-10,
-63,
-26,
0,
0,
0,
-16,
-8,
20,
57,
242,
3,
-9,
-39,
11,
0,
0,
0,
-4,
27,
-53,
-27,
332,
-270,
34,
22,
-50,
0,
0,
0,
-104,
-77,
-168,
206,
257,
-109,
109,
76,
-126,
0,
0,
0,
218,
122,
143,
128,
77,
95,
78,
50,
68,
0,
0,
0,
-122,
-189,
-130,
434,
98,
-38,
73,
42,
-72,
0,
0,
0,
-15,
-75,
62,
41,
-1,
74,
278,
233,
95,
0,
0,
0,
19,
4,
-3,
155,
121,
138,
182,
95,
131,
0,
0,
0,
-83,
-52,
-123,
-119,
4,
-92,
-138,
-121,
-11,
0,
0,
0,
-74,
-162,
-117,
157,
141,
43,
25,
-5,
5,
0,
0,
0,
-134,
-69,
-118,
-112,
-114,
-124,
30,
-22,
-10,
0,
0,
0,
40,
59,
46,
-23,
21,
12,
101,
265,
130,
0,
0,
0,
120,
279,
98,
-3,
-94,
-20,
-14,
-24,
-36,
0,
0,
0,
-48,
97,
-34,
261,
-250,
60,
51,
-87,
19,
0,
0,
0,
-102,
0,
-7,
10,
-36,
3,
436,
-42,
-5,
0,
0,
0,
-138,
218,
-107,
-143,
370,
-197,
-79,
97,
-23,
0,
0,
0,
-51,
463,
-75,
18,
-178,
19,
-39,
39,
-19,
0,
0,
0,
-162,
-63,
42,
-116,
65,
-121,
437,
513,
-17,
0,
0,
0,
-64,
-8,
55,
94,
-92,
-37,
467,
-169,
-213,
0,
0,
0,
61,
97,
-146,
6,
259,
-249,
10,
-63,
-175,
0,
0,
0,
230,
135,
171,
-152,
-118,
-103,
-75,
12,
-62,
0,
0,
0,
-19,
62,
-64,
53,
79,
180,
235,
118,
261,
0,
0,
0,
9,
-53,
21,
-2,
164,
82,
288,
341,
261,
0,
0,
0,
-288,
-159,
-207,
44,
139,
45,
-9,
103,
4,
0,
0,
0,
49,
38,
26,
-14,
-84,
-15,
435,
-127,
-183,
0,
0,
0,
-26,
171,
-47,
-51,
-124,
-23,
-26,
19,
1,
0,
0,
0,
373,
117,
-11,
92,
-49,
-130,
-25,
-109,
-46,
0,
0,
0,
-236,
-113,
-254,
95,
0,
119,
113,
45,
158,
0,
0,
0,
222,
253,
91,
196,
167,
189,
-12,
-59,
38,
0,
0,
0,
69,
155,
116,
213,
537,
108,
49,
368,
-12,
0,
0,
0,
286,
352,
180,
113,
145,
3,
-55,
60,
-22,
0,
0,
0,
-23,
15,
9,
-74,
-247,
-40,
36,
123,
175,
0,
0,
0,
-14,
-59,
-32,
-34,
-41,
6,
83,
130,
33,
0,
0,
0,
-21,
27,
66,
-37,
-159,
-157,
-66,
-98,
-169,
0,
0,
0,
107,
-36,
12,
258,
-241,
16,
-407,
475,
-79,
0,
0,
0,
126,
308,
125,
-63,
-78,
-56,
-23,
-71,
-84,
0,
0,
0,
-149,
-12,
95,
448,
-213,
-56,
-96,
-44,
-20,
0,
0,
0,
-1,
-18,
-10,
10,
-20,
-172,
3,
49,
-313,
0,
0,
0,
-25,
0,
3,
-21,
263,
60,
-13,
40,
47,
0,
0,
0,
266,
306,
200,
-133,
-241,
-103,
-58,
-87,
43,
0,
0,
0,
118,
86,
13,
320,
217,
239,
208,
212,
220,
0,
0,
0,
33,
161,
-51,
85,
537,
-259,
-160,
-150,
-113,
0,
0,
0,
67,
-237,
-233,
292,
125,
-193,
-33,
128,
86,
0,
0,
0,
51,
131,
22,
172,
462,
-1,
-24,
112,
24,
0,
0,
0,
-104,
-18,
10,
5,
461,
74,
36,
74,
-37,
0,
0,
0,
15,
-12,
277,
21,
8,
-36,
-24,
-36,
191,
0,
0,
0,
132,
207,
115,
157,
201,
139,
39,
43,
34,
0,
0,
0,
0,
0,
0,
0,
0,
0,
0,
0,
0,
0,
0,
0,
260,
307,
172,
-105,
-94,
-94,
-19,
-40,
-25,
0,
0,
0,
-18,
188,
381,
-66,
48,
194,
-67,
-80,
22,
0,
0,
0,
159,
-138,
-39,
37,
-42,
-18,
12,
-14,
5,
0,
0,
0,
84,
98,
69,
92,
60,
101,
134,
125,
166,
0,
0,
0,
6,
15,
-85,
-88,
-24,
47,
-232,
-24,
356,
0,
0,
0,
323,
832,
278,
-62,
170,
-28,
-63,
31,
5,
0,
0,
0,
56,
27,
43,
108,
57,
29,
11,
-57,
-27,
0,
0,
0,
-28,
-63,
16,
164,
-150,
2,
319,
-56,
-119,
0,
0,
0,
-50,
-24,
-6,
266,
62,
-208,
153,
41,
-146,
0,
0,
0,
-71,
-11,
-36,
-130,
-94,
-94,
240,
174,
151,
0,
0,
0,
34,
-15,
69,
229,
87,
142,
-40,
-73,
41,
0,
0,
0,
-20,
16,
7,
-64,
33,
-37,
-82,
-2,
-4,
0,
0,
0,
167,
163,
36,
137,
149,
86,
126,
122,
119,
0,
0,
0,
69,
178,
172,
-85,
42,
-50,
-87,
-141,
-148,
0,
0,
0,
242,
43,
-84,
295,
45,
-63,
-1,
-19,
-71,
0,
0,
0,
64,
110,
88,
-229,
247,
426,
-110,
71,
157,
0,
0,
0,
-125,
-56,
35,
-190,
62,
211,
-158,
57,
299,
0,
0,
0,
25,
4,
-46,
-106,
-77,
-137,
-109,
-210,
-297,
0,
0,
0,
6,
-110,
-187,
306,
186,
-93,
-75,
132,
123,
0,
0,
0,
246,
307,
92,
105,
133,
108,
-110,
-150,
-104,
0,
0,
0,
-347,
119,
105,
-184,
69,
4,
-152,
57,
66,
0,
0,
0,
-79,
-93,
-86,
213,
185,
118,
-88,
-168,
-104,
0,
0,
0,
221,
-15,
-66,
256,
576,
-6,
-4,
552,
-18,
0,
0,
0,
159,
172,
192,
79,
-9,
12,
7,
-34,
-51,
0,
0,
0,
222,
23,
-214,
-6,
-81,
-114,
66,
99,
4,
0,
0,
0,
0,
-21,
-20,
98,
499,
-55,
-113,
-151,
27,
0,
0,
0,
78,
293,
-13,
77,
208,
89,
-110,
86,
-68,
0,
0,
0,
33,
200,
303,
-75,
-67,
17,
-47,
-40,
4,
0,
0,
0,
8,
-5,
-55,
462,
7,
16,
-11,
-91,
38,
0,
0,
0,
486,
-72,
-32,
6,
-107,
31,
-63,
2,
-12,
0,
0,
0,
-102,
-56,
203,
-23,
-22,
30,
-19,
2,
11,
0,
0,
0,
478,
-27,
116,
916,
674,
-131,
-41,
390,
184,
0,
0,
0,
-163,
148,
21,
-218,
109,
-22,
-12,
49,
-24,
0,
0,
0,
4,
-42,
-33,
54,
203,
-227,
153,
149,
-342,
0,
0,
0,
-13,
53,
-30,
269,
179,
187,
-128,
-67,
-31,
0,
0,
0,
45,
-85,
34,
187,
-125,
-64,
284,
159,
-281,
0,
0,
0,
-108,
-71,
-85,
-137,
-160,
-94,
-40,
-2,
-18,
0,
0,
0,
40,
47,
-45,
6,
104,
159,
104,
157,
250,
0,
0,
0,
-73,
-148,
-50,
80,
558,
-42,
-114,
-15,
-44,
0,
0,
0,
62,
355,
112,
-80,
-250,
-29,
50,
24,
83,
0,
0,
0,
11,
-91,
-91,
-285,
124,
386,
-77,
-97,
109,
0,
0,
0,
440,
103,
272,
55,
-70,
-101,
138,
-85,
-250,
0,
0,
0,
71,
130,
50,
-32,
-24,
24,
-20,
-16,
12,
0,
0,
0,
65,
106,
19,
-141,
-195,
-136,
145,
124,
156,
0,
0,
0,
-329,
-87,
60,
316,
66,
13,
752,
272,
23,
0,
0,
0,
-187,
-95,
372,
-101,
-41,
140,
-99,
-53,
110,
0,
0,
0,
-100,
-123,
405,
-26,
-190,
-51,
20,
-11,
10,
0,
0,
0,
42,
45,
14,
309,
194,
154,
132,
82,
45,
0,
0,
0,
257,
130,
216,
18,
-24,
-38,
-19,
-25,
-59,
0,
0,
0,
-11,
22,
-66,
-102,
-34,
-119,
335,
26,
279,
0,
0,
0,
-101,
259,
219,
167,
249,
30,
136,
181,
-42,
0,
0,
0,
336,
511,
219,
435,
258,
309,
52,
98,
118,
0,
0,
0,
44,
-9,
-115,
-20,
232,
-332,
4,
-17,
-177,
0,
0,
0,
37,
-33,
-10,
-42,
-99,
-21,
95,
383,
-35,
0,
0,
0,
-125,
-242,
-175,
70,
283,
133,
-48,
-63,
11,
0,
0,
0,
-34,
21,
113,
-13,
-196,
381,
91,
259,
341,
0,
0,
0,
91,
-49,
-8,
-298,
372,
-93,
86,
-147,
50,
0,
0,
0,
65,
8,
-52,
-43,
-45,
34,
-54,
-97,
450,
0,
0,
0,
176,
386,
78,
9,
-169,
20,
-31,
-16,
-21,
0,
0,
0,
-156,
-135,
145,
356,
385,
684,
388,
513,
310,
0,
0,
0,
357,
112,
251,
-66,
18,
-80,
-73,
21,
-10,
0,
0,
0,
33,
86,
45,
20,
73,
-13,
-315,
-85,
-277,
0,
0,
0,
216,
-98,
-47,
-154,
73,
105,
-239,
259,
100,
0,
0,
0,
23,
-30,
0,
-102,
224,
-56,
1,
-27,
21,
0,
0,
0,
-151,
-135,
380,
141,
17,
-16,
-11,
97,
-47,
0,
0,
0,
-228,
-352,
-259,
35,
-111,
-14,
14,
28,
-32,
0,
0,
0,
330,
331,
237,
24,
58,
-51,
35,
33,
-29,
0,
0,
0,
68,
-97,
51,
367,
316,
218,
143,
-49,
64,
0,
0,
0,
-35,
-80,
-7,
38,
136,
35,
-55,
-106,
-23,
0,
0,
0,
26,
242,
4,
220,
272,
70,
67,
110,
33,
0,
0,
0,
-298,
67,
137,
26,
-173,
82,
136,
95,
72,
0,
0,
0,
83,
361,
28,
-57,
-177,
-24,
-110,
-159,
-95,
0,
0,
0,
-64,
74,
-80,
-56,
-47,
-39,
426,
71,
38,
0,
0,
0,
47,
306,
133,
38,
168,
247,
-83,
15,
144,
0,
0,
0,
134,
103,
159,
185,
139,
257,
166,
18,
-22,
0,
0,
0,
-35,
-48,
45,
-316,
87,
34,
-286,
262,
3,
0,
0,
0,
-17,
-216,
-13,
-100,
495,
-48,
-48,
-76,
1,
0,
0,
0,
159,
191,
-356,
-76,
-106,
129,
24,
-16,
65,
0,
0,
0,
26,
42,
126,
-44,
-113,
504,
-11,
1,
185,
0,
0,
0,
119,
364,
-42,
-193,
-370,
-80,
-29,
-35,
-30,
0,
0,
0,
212,
93,
201,
-2,
34,
39,
65,
-17,
10,
0,
0,
0,
-99,
92,
85,
-211,
11,
83,
355,
-94,
-200,
0,
0,
0,
70,
-7,
-48,
-201,
-171,
-52,
-235,
-267,
-103,
0,
0,
0,
-73,
74,
206,
-13,
17,
181,
195,
8,
61,
0,
0,
0,
0,
0,
0,
0,
0,
0,
0,
0,
0,
0,
0,
0,
9,
423,
-105,
-38,
-170,
16,
34,
0,
-49,
0,
0,
0,
168,
267,
8,
478,
202,
-3,
320,
26,
-49,
0,
0,
0,
-91,
-36,
-20,
-25,
-28,
-46,
319,
97,
29,
0,
0,
0,
-145,
-123,
125,
65,
203,
396,
188,
90,
424,
0,
0,
0,
-92,
-19,
18,
410,
-287,
9,
47,
-26,
-16,
0,
0,
0,
-142,
-234,
-102,
12,
91,
-7,
12,
59,
17,
0,
0,
0,
188,
-7,
169,
-79,
-99,
-83,
-40,
-17,
-74,
0,
0,
0}
