short group_7_0_weights[6144] = {-1,
-168,
482,
56,
-91,
-31,
60,
17,
103,
0,
0,
0,
0,
0,
0,
0,
0,
0,
0,
0,
0,
0,
0,
0,
99,
190,
-53,
-136,
354,
-146,
36,
296,
-136,
0,
0,
0,
-44,
-30,
-49,
-115,
-55,
-44,
-155,
-35,
-34,
0,
0,
0,
23,
38,
19,
28,
-78,
-35,
285,
-51,
284,
0,
0,
0,
-125,
-352,
202,
188,
345,
-176,
-72,
85,
-73,
0,
0,
0,
0,
0,
0,
0,
0,
0,
0,
0,
0,
0,
0,
0,
321,
87,
121,
68,
-57,
18,
150,
3,
84,
0,
0,
0,
-48,
36,
-42,
-273,
-88,
-214,
265,
83,
226,
0,
0,
0,
99,
118,
88,
56,
119,
65,
-128,
-149,
-140,
0,
0,
0,
0,
0,
0,
0,
0,
0,
0,
0,
0,
0,
0,
0,
-142,
-83,
220,
-63,
-67,
260,
-7,
-154,
497,
0,
0,
0,
0,
0,
0,
0,
0,
0,
0,
0,
0,
0,
0,
0,
-7,
-50,
-11,
225,
298,
83,
-248,
-311,
-105,
0,
0,
0,
0,
0,
0,
0,
0,
0,
0,
0,
0,
0,
0,
0,
134,
-149,
-146,
-195,
178,
130,
-99,
184,
94,
0,
0,
0,
0,
0,
0,
0,
0,
0,
0,
0,
0,
0,
0,
0,
-153,
-176,
-46,
291,
104,
44,
133,
-25,
38,
0,
0,
0,
259,
-58,
228,
15,
-119,
38,
112,
-25,
97,
0,
0,
0,
272,
-167,
-119,
164,
-160,
-32,
288,
-54,
-52,
0,
0,
0,
0,
0,
0,
0,
0,
0,
0,
0,
0,
0,
0,
0,
469,
-343,
-141,
-44,
-63,
-4,
-1,
55,
-14,
0,
0,
0,
0,
0,
0,
0,
0,
0,
0,
0,
0,
0,
0,
0,
0,
0,
0,
0,
0,
0,
0,
0,
0,
0,
0,
0,
303,
-176,
306,
-155,
-10,
-155,
4,
10,
29,
0,
0,
0,
0,
0,
0,
0,
0,
0,
0,
0,
0,
0,
0,
0,
435,
356,
84,
8,
131,
-81,
7,
-25,
-84,
0,
0,
0,
-159,
-55,
-124,
-19,
59,
-39,
-81,
-20,
-92,
0,
0,
0,
0,
0,
0,
0,
0,
0,
0,
0,
0,
0,
0,
0,
110,
-93,
7,
329,
-341,
3,
50,
-10,
-9,
0,
0,
0,
29,
98,
44,
37,
5,
102,
200,
62,
245,
0,
0,
0,
66,
2,
17,
115,
42,
71,
198,
42,
84,
0,
0,
0,
34,
335,
0,
-34,
-359,
-7,
11,
73,
-35,
0,
0,
0,
4,
-79,
44,
-226,
-39,
-214,
228,
-11,
236,
0,
0,
0,
14,
-256,
-195,
63,
160,
9,
-24,
137,
115,
0,
0,
0,
263,
-197,
15,
227,
-170,
11,
136,
-152,
32,
0,
0,
0,
-274,
-74,
222,
-152,
66,
211,
-98,
-38,
41,
0,
0,
0,
302,
20,
199,
-202,
-42,
-169,
-1,
3,
4,
0,
0,
0,
-158,
-107,
117,
-45,
-98,
84,
152,
23,
350,
0,
0,
0,
0,
0,
0,
0,
0,
0,
0,
0,
0,
0,
0,
0,
195,
61,
153,
193,
55,
118,
133,
21,
191,
0,
0,
0,
-29,
-44,
-65,
155,
42,
65,
315,
215,
218,
0,
0,
0,
248,
-9,
213,
62,
-138,
63,
187,
-23,
170,
0,
0,
0,
-37,
231,
-151,
134,
308,
-143,
-19,
-317,
74,
0,
0,
0,
135,
101,
143,
-204,
-172,
-142,
-79,
52,
-90,
0,
0,
0,
237,
84,
216,
133,
39,
71,
194,
20,
-54,
0,
0,
0,
0,
0,
0,
0,
0,
0,
0,
0,
0,
0,
0,
0,
60,
68,
16,
155,
76,
110,
182,
76,
152,
0,
0,
0,
331,
-87,
-265,
208,
-17,
-58,
-14,
-12,
-6,
0,
0,
0,
0,
0,
0,
0,
0,
0,
0,
0,
0,
0,
0,
0,
-51,
-38,
-1,
-16,
-123,
-16,
262,
93,
248,
0,
0,
0,
12,
186,
-248,
11,
200,
-202,
-19,
8,
15,
0,
0,
0,
-163,
8,
-44,
15,
-81,
-91,
259,
87,
156,
0,
0,
0,
0,
0,
0,
0,
0,
0,
0,
0,
0,
0,
0,
0,
57,
-23,
-8,
-38,
108,
171,
-192,
170,
160,
0,
0,
0,
148,
368,
-68,
-134,
-338,
55,
47,
55,
-17,
0,
0,
0,
0,
0,
0,
0,
0,
0,
0,
0,
0,
0,
0,
0,
5,
35,
-8,
-29,
-31,
88,
314,
235,
273,
0,
0,
0,
0,
0,
0,
0,
0,
0,
0,
0,
0,
0,
0,
0,
140,
202,
97,
-176,
-119,
-129,
-52,
34,
-22,
0,
0,
0,
46,
185,
50,
86,
194,
112,
189,
108,
172,
0,
0,
0,
0,
0,
0,
0,
0,
0,
0,
0,
0,
0,
0,
0,
200,
1,
-249,
117,
-19,
-131,
40,
-22,
-166,
0,
0,
0,
14,
-42,
-19,
-53,
-226,
296,
-79,
-226,
317,
0,
0,
0,
-128,
-100,
487,
-47,
-156,
56,
13,
7,
72,
0,
0,
0,
-197,
69,
14,
-155,
85,
45,
-200,
7,
43,
0,
0,
0,
104,
232,
-83,
143,
296,
-75,
-132,
-241,
93,
0,
0,
0,
80,
72,
73,
116,
34,
104,
281,
54,
180,
0,
0,
0,
57,
30,
41,
111,
58,
63,
275,
157,
249,
0,
0,
0,
0,
0,
0,
0,
0,
0,
0,
0,
0,
0,
0,
0,
158,
45,
133,
50,
-12,
70,
52,
22,
41,
0,
0,
0,
0,
0,
0,
0,
0,
0,
0,
0,
0,
0,
0,
0,
130,
-25,
-2,
223,
-85,
-48,
239,
-36,
56,
0,
0,
0,
0,
0,
0,
0,
0,
0,
0,
0,
0,
0,
0,
0,
250,
-133,
343,
-38,
-75,
-72,
-3,
-24,
29,
0,
0,
0,
223,
31,
137,
259,
136,
210,
-100,
-38,
-84,
0,
0,
0,
0,
0,
0,
0,
0,
0,
0,
0,
0,
0,
0,
0,
-9,
3,
57,
113,
-141,
183,
340,
27,
238,
0,
0,
0,
228,
240,
-61,
169,
83,
-131,
-73,
-44,
-100,
0,
0,
0,
-248,
-112,
-152,
103,
111,
29,
30,
-46,
3,
0,
0,
0,
-159,
-70,
94,
-157,
31,
122,
-30,
124,
231,
0,
0,
0,
0,
0,
0,
0,
0,
0,
0,
0,
0,
0,
0,
0,
337,
157,
307,
15,
-199,
2,
637,
227,
545,
0,
0,
0,
154,
178,
212,
8,
69,
58,
-61,
-40,
53,
0,
0,
0,
0,
0,
0,
0,
0,
0,
0,
0,
0,
0,
0,
0,
107,
98,
370,
-18,
-34,
-12,
28,
29,
23,
0,
0,
0,
0,
0,
0,
0,
0,
0,
0,
0,
0,
0,
0,
0,
0,
0,
0,
0,
0,
0,
0,
0,
0,
0,
0,
0,
196,
-94,
11,
-27,
-64,
34,
215,
-90,
3,
0,
0,
0,
99,
120,
142,
18,
45,
81,
-6,
45,
196,
0,
0,
0,
-68,
-141,
440,
7,
-139,
-89,
22,
0,
-90,
0,
0,
0,
103,
105,
89,
71,
178,
61,
139,
125,
73,
0,
0,
0,
422,
-112,
85,
44,
-101,
-105,
-12,
26,
7,
0,
0,
0,
0,
0,
0,
0,
0,
0,
0,
0,
0,
0,
0,
0,
0,
0,
0,
0,
0,
0,
0,
0,
0,
0,
0,
0,
240,
250,
415,
13,
-104,
-96,
-35,
-36,
-77,
0,
0,
0,
-184,
95,
-23,
-130,
120,
-15,
-269,
120,
38,
0,
0,
0,
-39,
178,
-217,
42,
156,
-112,
-25,
97,
-127,
0,
0,
0,
24,
-15,
27,
95,
-70,
-13,
248,
50,
267,
0,
0,
0,
0,
0,
0,
0,
0,
0,
0,
0,
0,
0,
0,
0,
-65,
-17,
33,
176,
81,
135,
180,
70,
128,
0,
0,
0,
-23,
-56,
-44,
41,
10,
50,
-247,
111,
-261,
0,
0,
0,
-2,
-34,
-8,
134,
78,
100,
219,
149,
147,
0,
0,
0,
0,
0,
0,
0,
0,
0,
0,
0,
0,
0,
0,
0,
-192,
-147,
-205,
78,
-7,
101,
162,
120,
189,
0,
0,
0,
0,
0,
0,
0,
0,
0,
0,
0,
0,
0,
0,
0,
338,
238,
256,
-104,
-168,
-71,
25,
-80,
42,
0,
0,
0,
-69,
-23,
-7,
-23,
-78,
-60,
271,
104,
245,
0,
0,
0,
0,
0,
0,
0,
0,
0,
0,
0,
0,
0,
0,
0,
124,
264,
420,
50,
-44,
-70,
-75,
11,
40,
0,
0,
0,
35,
-124,
240,
46,
-89,
-13,
-32,
-159,
352,
0,
0,
0,
0,
0,
0,
0,
0,
0,
0,
0,
0,
0,
0,
0,
0,
0,
0,
0,
0,
0,
0,
0,
0,
0,
0,
0,
20,
78,
79,
-162,
-129,
-43,
281,
-19,
97,
0,
0,
0,
0,
0,
0,
0,
0,
0,
0,
0,
0,
0,
0,
0,
201,
-23,
-41,
406,
169,
-193,
154,
82,
-42,
0,
0,
0,
188,
76,
181,
124,
10,
94,
-7,
-76,
35,
0,
0,
0,
-1,
-29,
9,
-188,
-247,
-53,
220,
230,
98,
0,
0,
0,
-68,
-33,
490,
-81,
-30,
194,
9,
-2,
151,
0,
0,
0,
273,
56,
181,
92,
12,
20,
-79,
-41,
-36,
0,
0,
0,
0,
0,
0,
0,
0,
0,
0,
0,
0,
0,
0,
0,
0,
0,
0,
0,
0,
0,
0,
0,
0,
0,
0,
0,
159,
70,
47,
149,
57,
43,
385,
230,
139,
0,
0,
0,
114,
122,
127,
-139,
-134,
-175,
-90,
-77,
-41,
0,
0,
0,
-27,
-6,
-33,
-74,
-115,
-61,
249,
15,
174,
0,
0,
0,
20,
-198,
175,
-19,
-322,
320,
14,
-100,
79,
0,
0,
0,
217,
287,
80,
105,
84,
67,
7,
-44,
88,
0,
0,
0,
0,
0,
0,
0,
0,
0,
0,
0,
0,
0,
0,
0,
18,
133,
364,
-67,
-44,
168,
121,
-53,
59,
0,
0,
0,
-32,
73,
-42,
-72,
-145,
20,
453,
-194,
-160,
0,
0,
0,
352,
180,
199,
-348,
-184,
-218,
41,
52,
59,
0,
0,
0,
0,
0,
0,
0,
0,
0,
0,
0,
0,
0,
0,
0,
-203,
-181,
-78,
3,
-151,
-55,
227,
140,
152,
0,
0,
0,
0,
0,
0,
0,
0,
0,
0,
0,
0,
0,
0,
0,
216,
-139,
-73,
211,
-213,
-19,
-5,
-56,
2,
0,
0,
0,
-145,
6,
90,
168,
-34,
-3,
395,
-261,
-122,
0,
0,
0,
-78,
165,
252,
67,
133,
94,
84,
68,
-52,
0,
0,
0,
-102,
-117,
-62,
95,
288,
22,
89,
163,
8,
0,
0,
0,
-98,
-80,
-94,
72,
58,
51,
249,
142,
220,
0,
0,
0,
-1,
279,
-236,
45,
277,
-286,
8,
-140,
182,
0,
0,
0,
0,
0,
0,
0,
0,
0,
0,
0,
0,
0,
0,
0,
145,
-133,
-70,
302,
-136,
-46,
452,
-276,
-135,
0,
0,
0,
60,
-98,
81,
192,
7,
133,
183,
2,
205,
0,
0,
0,
0,
0,
0,
0,
0,
0,
0,
0,
0,
0,
0,
0,
-100,
46,
-33,
182,
-121,
10,
300,
-264,
-21,
0,
0,
0,
0,
0,
0,
0,
0,
0,
0,
0,
0,
0,
0,
0,
-211,
-153,
-43,
40,
144,
2,
153,
126,
128,
0,
0,
0,
0,
0,
0,
0,
0,
0,
0,
0,
0,
0,
0,
0,
86,
205,
-117,
80,
194,
-150,
-70,
52,
-42,
0,
0,
0,
0,
0,
0,
0,
0,
0,
0,
0,
0,
0,
0,
0,
0,
0,
0,
0,
0,
0,
0,
0,
0,
0,
0,
0,
244,
109,
-62,
215,
90,
-12,
-58,
-98,
5,
0,
0,
0,
29,
-190,
-26,
139,
-91,
137,
244,
113,
309,
0,
0,
0,
160,
-30,
80,
216,
11,
193,
169,
89,
146,
0,
0,
0,
-17,
17,
34,
-111,
50,
179,
129,
134,
341,
0,
0,
0,
0,
0,
0,
0,
0,
0,
0,
0,
0,
0,
0,
0,
-40,
-94,
-96,
154,
26,
-42,
326,
14,
-26,
0,
0,
0,
0,
0,
0,
0,
0,
0,
0,
0,
0,
0,
0,
0,
238,
141,
229,
120,
20,
37,
2,
122,
275,
0,
0,
0,
0,
0,
0,
0,
0,
0,
0,
0,
0,
0,
0,
0,
0,
0,
0,
0,
0,
0,
0,
0,
0,
0,
0,
0,
-5,
-5,
15,
153,
178,
99,
177,
212,
147,
0,
0,
0,
130,
39,
188,
195,
40,
162,
128,
-61,
138,
0,
0,
0,
-217,
-27,
-35,
150,
-83,
-70,
502,
-85,
-24,
0,
0,
0,
-226,
-104,
-138,
3,
53,
-46,
89,
149,
55,
0,
0,
0,
-158,
85,
55,
-184,
332,
172,
-107,
24,
-31,
0,
0,
0,
-109,
89,
242,
-89,
31,
173,
-45,
-16,
130,
0,
0,
0,
188,
61,
49,
115,
-5,
-57,
95,
71,
38,
0,
0,
0,
303,
98,
223,
5,
-36,
38,
-185,
-17,
-57,
0,
0,
0,
134,
-7,
-75,
122,
-59,
-5,
371,
94,
162,
0,
0,
0,
-5,
-280,
274,
0,
-258,
310,
34,
-2,
69,
0,
0,
0,
310,
242,
132,
-161,
-207,
-82,
6,
-80,
29,
0,
0,
0,
0,
0,
0,
0,
0,
0,
0,
0,
0,
0,
0,
0,
13,
-11,
46,
92,
40,
53,
219,
155,
160,
0,
0,
0,
92,
59,
66,
0,
49,
50,
117,
312,
127,
0,
0,
0,
136,
93,
-125,
-70,
-53,
3,
8,
130,
527,
0,
0,
0,
40,
-153,
8,
155,
-21,
85,
240,
116,
196,
0,
0,
0,
0,
0,
0,
0,
0,
0,
0,
0,
0,
0,
0,
0,
146,
79,
152,
176,
80,
105,
-10,
-48,
-1,
0,
0,
0,
194,
-147,
-92,
161,
-12,
-68,
131,
-66,
-139,
0,
0,
0,
0,
0,
0,
0,
0,
0,
0,
0,
0,
0,
0,
0,
250,
36,
101,
223,
180,
117,
-69,
76,
236,
0,
0,
0,
-62,
-23,
-105,
-72,
-61,
-107,
308,
81,
206,
0,
0,
0,
182,
115,
102,
134,
70,
69,
165,
186,
14,
0,
0,
0,
221,
-36,
390,
13,
-120,
-32,
17,
-58,
90,
0,
0,
0,
-134,
-52,
-84,
47,
-48,
0,
480,
127,
260,
0,
0,
0,
-148,
-4,
-150,
-69,
46,
-63,
-71,
5,
-64,
0,
0,
0,
324,
-101,
-76,
26,
-54,
-8,
248,
-40,
-69,
0,
0,
0,
0,
0,
0,
0,
0,
0,
0,
0,
0,
0,
0,
0,
122,
-147,
21,
23,
-60,
168,
-3,
185,
314,
0,
0,
0,
-146,
-73,
-146,
-7,
37,
-17,
-86,
-43,
-38,
0,
0,
0,
30,
-95,
31,
-64,
-128,
57,
-196,
75,
76,
0,
0,
0,
47,
-74,
-119,
-72,
-83,
256,
39,
-54,
497,
0,
0,
0,
244,
188,
165,
-253,
-180,
-211,
42,
38,
13,
0,
0,
0,
131,
468,
-180,
-50,
-302,
-1,
-24,
-7,
-16,
0,
0,
0,
0,
0,
0,
0,
0,
0,
0,
0,
0,
0,
0,
0,
365,
-310,
-12,
94,
-117,
17,
-5,
45,
-5,
0,
0,
0,
149,
-158,
38,
305,
-288,
-27,
137,
-142,
37,
0,
0,
0,
-217,
-24,
-125,
-10,
41,
-12,
-133,
3,
-132,
0,
0,
0,
60,
27,
-4,
64,
46,
120,
200,
93,
186,
0,
0,
0,
218,
-138,
-14,
324,
-175,
-6,
304,
-239,
-47,
0,
0,
0,
-38,
5,
-16,
-29,
-91,
-7,
514,
-122,
-39,
0,
0,
0,
146,
232,
-176,
87,
275,
-50,
-102,
66,
-102,
0,
0,
0,
-299,
215,
-28,
-144,
155,
2,
-221,
114,
-9,
0,
0,
0,
6,
-84,
384,
-80,
-234,
46,
50,
-99,
96,
0,
0,
0,
205,
143,
243,
-23,
-48,
-4,
-5,
24,
-71,
0,
0,
0,
-35,
-174,
-182,
44,
-41,
37,
424,
120,
397,
0,
0,
0,
-61,
10,
-59,
-72,
-158,
-89,
303,
77,
331,
0,
0,
0,
-82,
-3,
-109,
217,
241,
-39,
164,
123,
4,
0,
0,
0,
0,
0,
0,
0,
0,
0,
0,
0,
0,
0,
0,
0,
-30,
159,
-167,
16,
303,
-319,
-48,
-33,
52,
0,
0,
0,
224,
-108,
-100,
169,
6,
3,
343,
86,
155,
0,
0,
0,
227,
118,
231,
100,
35,
117,
87,
39,
43,
0,
0,
0,
-447,
-27,
-368,
-3,
143,
-40,
-259,
0,
-245,
0,
0,
0,
212,
98,
311,
-119,
-120,
-11,
-54,
-20,
-55,
0,
0,
0,
287,
101,
260,
102,
33,
91,
5,
45,
37,
0,
0,
0,
-33,
-113,
295,
-10,
-90,
53,
21,
-77,
184,
0,
0,
0,
180,
292,
66,
-176,
-177,
8,
11,
-26,
11,
0,
0,
0,
142,
-222,
51,
48,
-89,
229,
86,
189,
320,
0,
0,
0,
-50,
57,
-16,
53,
292,
68,
-45,
-260,
-101,
0,
0,
0,
-2,
-108,
155,
89,
88,
240,
286,
194,
201,
0,
0,
0,
66,
60,
58,
233,
66,
-128,
230,
211,
-53,
0,
0,
0,
11,
37,
253,
-71,
48,
209,
-64,
68,
275,
0,
0,
0,
172,
30,
130,
130,
1,
154,
113,
41,
121,
0,
0,
0,
20,
24,
-39,
262,
213,
-121,
-262,
-89,
21,
0,
0,
0,
243,
69,
192,
-121,
-109,
-101,
-69,
-31,
-101,
0,
0,
0,
-97,
-60,
6,
195,
-120,
0,
183,
-136,
-84,
0,
0,
0,
-234,
-175,
-180,
280,
212,
101,
-87,
-107,
-46,
0,
0,
0,
0,
0,
0,
0,
0,
0,
0,
0,
0,
0,
0,
0,
0,
0,
0,
0,
0,
0,
0,
0,
0,
0,
0,
0,
410,
195,
260,
157,
53,
104,
37,
-52,
116,
0,
0,
0,
79,
29,
-53,
-40,
-132,
-45,
-71,
-78,
464,
0,
0,
0,
-50,
-37,
-77,
-56,
-60,
-83,
250,
131,
198,
0,
0,
0,
111,
-41,
83,
164,
-42,
138,
421,
73,
239,
0,
0,
0,
231,
161,
76,
178,
70,
174,
35,
-3,
119,
0,
0,
0,
0,
145,
-22,
138,
260,
26,
-146,
-146,
6,
0,
0,
0,
155,
280,
83,
37,
65,
-22,
38,
-34,
1,
0,
0,
0,
0,
0,
0,
0,
0,
0,
0,
0,
0,
0,
0,
0,
5,
-222,
229,
32,
-228,
346,
-24,
-281,
358,
0,
0,
0,
5,
111,
-10,
-213,
-156,
-142,
145,
85,
91,
0,
0,
0,
282,
255,
120,
166,
126,
105,
-78,
-37,
-178,
0,
0,
0,
0,
0,
0,
0,
0,
0,
0,
0,
0,
0,
0,
0,
97,
-13,
102,
5,
-103,
119,
-105,
-148,
400,
0,
0,
0,
123,
231,
245,
72,
148,
130,
2,
117,
30,
0,
0,
0,
0,
0,
0,
0,
0,
0,
0,
0,
0,
0,
0,
0,
190,
131,
-303,
-68,
213,
234,
-8,
87,
372,
0,
0,
0,
39,
150,
240,
22,
61,
104,
22,
-14,
85,
0,
0,
0,
0,
0,
0,
0,
0,
0,
0,
0,
0,
0,
0,
0,
-12,
8,
-36,
-99,
-45,
-68,
-84,
-45,
-46,
0,
0,
0,
0,
0,
0,
0,
0,
0,
0,
0,
0,
0,
0,
0,
115,
128,
239,
-170,
-137,
-141,
-10,
2,
-108,
0,
0,
0,
0,
0,
0,
0,
0,
0,
0,
0,
0,
0,
0,
0,
0,
0,
0,
0,
0,
0,
0,
0,
0,
0,
0,
0,
59,
52,
-14,
58,
31,
62,
204,
174,
174,
0,
0,
0,
0,
0,
0,
0,
0,
0,
0,
0,
0,
0,
0,
0,
0,
0,
0,
0,
0,
0,
0,
0,
0,
0,
0,
0,
80,
80,
16,
140,
31,
-67,
463,
45,
-4,
0,
0,
0,
-8,
-115,
-196,
11,
21,
297,
-38,
-49,
319,
0,
0,
0,
106,
138,
122,
91,
103,
40,
18,
90,
-14,
0,
0,
0,
-74,
30,
-45,
-80,
-6,
-67,
-160,
45,
-178,
0,
0,
0,
70,
111,
94,
-47,
149,
93,
-92,
102,
127,
0,
0,
0,
348,
16,
299,
-193,
-125,
-214,
-71,
53,
-46,
0,
0,
0,
0,
0,
0,
0,
0,
0,
0,
0,
0,
0,
0,
0,
0,
0,
0,
0,
0,
0,
0,
0,
0,
0,
0,
0,
-21,
50,
-100,
-53,
-360,
108,
116,
390,
-107,
0,
0,
0,
0,
0,
0,
0,
0,
0,
0,
0,
0,
0,
0,
0,
283,
233,
60,
-51,
-62,
-72,
-47,
-20,
6,
0,
0,
0,
392,
154,
131,
179,
-60,
-29,
185,
-27,
21,
0,
0,
0,
346,
32,
250,
-129,
-100,
-121,
-18,
6,
-7,
0,
0,
0,
0,
0,
0,
0,
0,
0,
0,
0,
0,
0,
0,
0,
240,
-221,
-105,
362,
-183,
-172,
131,
-63,
81,
0,
0,
0,
-142,
-76,
178,
-64,
11,
218,
-141,
-81,
150,
0,
0,
0,
77,
117,
154,
41,
112,
127,
122,
94,
137,
0,
0,
0,
-113,
-63,
-32,
77,
26,
133,
248,
50,
113,
0,
0,
0,
82,
261,
-192,
139,
138,
-129,
-3,
14,
33,
0,
0,
0,
0,
0,
0,
0,
0,
0,
0,
0,
0,
0,
0,
0,
-112,
-90,
315,
-133,
-144,
215,
72,
-95,
2,
0,
0,
0,
-15,
-160,
96,
280,
-63,
4,
411,
179,
85,
0,
0,
0,
-68,
-65,
-125,
-68,
-136,
-71,
273,
149,
250,
0,
0,
0,
-33,
234,
133,
-41,
146,
194,
18,
-101,
-44,
0,
0,
0,
-222,
-20,
-181,
-25,
-10,
-48,
158,
-6,
128,
0,
0,
0,
-242,
-219,
-95,
169,
193,
75,
-51,
-22,
-43,
0,
0,
0,
163,
-81,
-40,
215,
-138,
-85,
225,
-111,
-166,
0,
0,
0,
501,
-190,
-33,
-195,
-74,
28,
54,
15,
9,
0,
0,
0,
249,
-65,
-275,
87,
-69,
-71,
153,
-51,
-91,
0,
0,
0,
-217,
194,
2,
-243,
257,
37,
49,
-15,
-81,
0,
0,
0,
92,
146,
65,
-115,
-297,
-104,
109,
221,
76,
0,
0,
0,
0,
0,
0,
0,
0,
0,
0,
0,
0,
0,
0,
0,
420,
-194,
-84,
258,
-188,
13,
27,
-59,
-8,
0,
0,
0,
-151,
-134,
410,
-115,
-160,
176,
-73,
35,
227,
0,
0,
0,
-164,
-245,
90,
128,
400,
-190,
15,
109,
-11,
0,
0,
0,
-49,
-88,
207,
-87,
-128,
103,
-123,
-79,
473,
0,
0,
0,
210,
19,
222,
-43,
-62,
-84,
-134,
-62,
-89,
0,
0,
0,
-188,
-20,
-149,
0,
-43,
-5,
-37,
-70,
-45,
0,
0,
0,
61,
-12,
48,
-253,
-267,
-42,
213,
241,
47,
0,
0,
0,
0,
0,
0,
0,
0,
0,
0,
0,
0,
0,
0,
0,
484,
-145,
34,
-142,
-80,
-20,
-70,
-41,
-20,
0,
0,
0,
66,
-33,
-149,
67,
-6,
-112,
55,
-17,
-166,
0,
0,
0,
-247,
-10,
89,
-9,
70,
-38,
391,
-47,
-127,
0,
0,
0,
301,
-192,
-79,
276,
-268,
-31,
62,
-24,
-32,
0,
0,
0,
-45,
-107,
247,
-54,
-175,
230,
-29,
-126,
226,
0,
0,
0,
271,
100,
228,
48,
-36,
13,
10,
39,
16,
0,
0,
0,
0,
0,
0,
0,
0,
0,
0,
0,
0,
0,
0,
0,
243,
216,
17,
235,
147,
28,
-54,
-29,
-38,
0,
0,
0,
318,
4,
259,
-11,
-59,
-61,
138,
135,
58,
0,
0,
0,
0,
0,
0,
0,
0,
0,
0,
0,
0,
0,
0,
0,
0,
0,
0,
0,
0,
0,
0,
0,
0,
0,
0,
0,
0,
0,
0,
0,
0,
0,
0,
0,
0,
0,
0,
0,
334,
-69,
-54,
244,
-183,
-56,
260,
-135,
-14,
0,
0,
0,
0,
0,
0,
0,
0,
0,
0,
0,
0,
0,
0,
0,
189,
205,
160,
193,
229,
138,
-99,
-114,
-60,
0,
0,
0,
201,
63,
116,
254,
94,
150,
159,
104,
128,
0,
0,
0,
0,
0,
0,
0,
0,
0,
0,
0,
0,
0,
0,
0,
-25,
-288,
300,
28,
-172,
186,
-39,
-16,
-16,
0,
0,
0,
-126,
133,
31,
-146,
-73,
0,
540,
-272,
-25,
0,
0,
0,
0,
0,
0,
0,
0,
0,
0,
0,
0,
0,
0,
0,
6,
40,
-29,
106,
-381,
176,
-89,
259,
-110,
0,
0,
0,
58,
317,
-213,
-11,
192,
-220,
-78,
-78,
89,
0,
0,
0,
0,
0,
0,
0,
0,
0,
0,
0,
0,
0,
0,
0,
0,
0,
0,
0,
0,
0,
0,
0,
0,
0,
0,
0,
-214,
146,
17,
333,
-384,
36,
118,
-11,
47,
0,
0,
0,
171,
145,
-7,
231,
142,
57,
257,
117,
25,
0,
0,
0,
-9,
56,
-6,
-200,
-48,
-223,
242,
-105,
315,
0,
0,
0,
33,
-110,
107,
-69,
-274,
315,
12,
-79,
151,
0,
0,
0,
38,
274,
-205,
101,
241,
-229,
-145,
-80,
61,
0,
0,
0,
-92,
-19,
-80,
-89,
-24,
-96,
-59,
-5,
-48,
0,
0,
0,
138,
42,
105,
107,
74,
75,
149,
134,
105,
0,
0,
0,
0,
0,
0,
0,
0,
0,
0,
0,
0,
0,
0,
0,
-91,
-16,
-73,
53,
372,
10,
-45,
-407,
62,
0,
0,
0,
-190,
231,
68,
-262,
339,
55,
8,
89,
-41,
0,
0,
0,
160,
30,
155,
184,
39,
213,
222,
78,
208,
0,
0,
0,
-111,
116,
297,
-95,
117,
203,
216,
-12,
-166,
0,
0,
0,
367,
185,
287,
-15,
-40,
-34,
-30,
-35,
-4,
0,
0,
0,
281,
89,
280,
-123,
-127,
-122,
21,
49,
-7,
0,
0,
0,
-282,
303,
27,
-230,
231,
34,
39,
-49,
-58,
0,
0,
0,
0,
0,
0,
0,
0,
0,
0,
0,
0,
0,
0,
0,
334,
122,
252,
276,
96,
80,
-9,
-8,
-115,
0,
0,
0,
141,
-26,
372,
58,
-8,
167,
27,
69,
228,
0,
0,
0,
138,
-4,
-134,
-95,
-86,
-37,
-34,
173,
286,
0,
0,
0,
0,
0,
0,
0,
0,
0,
0,
0,
0,
0,
0,
0,
139,
107,
148,
49,
47,
68,
-9,
46,
-10,
0,
0,
0,
481,
85,
463,
271,
-21,
171,
208,
-139,
218,
0,
0,
0,
0,
0,
0,
0,
0,
0,
0,
0,
0,
0,
0,
0,
-117,
176,
247,
-89,
284,
218,
7,
80,
-125,
0,
0,
0,
-35,
215,
-199,
27,
317,
-278,
-68,
52,
-13,
0,
0,
0,
-1,
0,
-2,
0,
0,
0,
-2,
-1,
-1,
0,
0,
0,
-24,
-257,
164,
18,
-239,
176,
-15,
-36,
46,
0,
0,
0,
0,
0,
0,
0,
0,
0,
0,
0,
0,
0,
0,
0,
0,
0,
0,
0,
0,
0,
0,
0,
0,
0,
0,
0,
358,
85,
29,
73,
-76,
-85,
-36,
-28,
79,
0,
0,
0,
0,
0,
0,
0,
0,
0,
0,
0,
0,
0,
0,
0,
125,
13,
110,
221,
64,
197,
-93,
-91,
-101,
0,
0,
0,
0,
0,
0,
0,
0,
0,
0,
0,
0,
0,
0,
0,
-172,
-360,
11,
195,
316,
-37,
-6,
-12,
33,
0,
0,
0,
12,
-84,
217,
-1,
-94,
68,
3,
-66,
217,
0,
0,
0,
0,
0,
0,
0,
0,
0,
0,
0,
0,
0,
0,
0,
-263,
-110,
-23,
48,
74,
170,
98,
-16,
40,
0,
0,
0,
0,
0,
0,
0,
0,
0,
0,
0,
0,
0,
0,
0,
0,
0,
0,
0,
0,
0,
0,
0,
0,
0,
0,
0,
215,
54,
164,
59,
-27,
79,
171,
88,
153,
0,
0,
0,
0,
0,
0,
0,
0,
0,
0,
0,
0,
0,
0,
0,
193,
-151,
15,
144,
-156,
12,
79,
-48,
22,
0,
0,
0,
62,
3,
80,
124,
96,
42,
-248,
-108,
-186,
0,
0,
0,
-113,
-69,
364,
-127,
-88,
207,
-114,
-121,
179,
0,
0,
0,
-139,
-133,
181,
-170,
35,
210,
-149,
43,
86,
0,
0,
0,
106,
159,
72,
85,
138,
18,
-21,
39,
-15,
0,
0,
0,
0,
0,
0,
0,
0,
0,
0,
0,
0,
0,
0,
0,
-61,
-48,
-62,
234,
90,
253,
-187,
-164,
-200,
0,
0,
0,
198,
181,
34,
29,
-21,
-18,
-9,
60,
123,
0,
0,
0,
179,
68,
133,
146,
65,
127,
67,
74,
83,
0,
0,
0,
0,
0,
0,
0,
0,
0,
0,
0,
0,
0,
0,
0,
13,
196,
-128,
15,
282,
-158,
1,
148,
-58,
0,
0,
0,
421,
98,
348,
16,
-166,
-50,
97,
29,
-46,
0,
0,
0,
221,
-137,
-44,
217,
2,
-5,
-276,
-45,
108,
0,
0,
0,
47,
190,
102,
58,
237,
169,
210,
87,
-90,
0,
0,
0,
40,
21,
54,
128,
65,
153,
168,
96,
116,
0,
0,
0,
-63,
-32,
15,
-56,
-27,
201,
-150,
-53,
310,
0,
0,
0,
0,
0,
0,
0,
0,
0,
0,
0,
0,
0,
0,
0,
0,
0,
0,
0,
0,
0,
0,
0,
0,
0,
0,
0,
-200,
236,
-52,
-289,
292,
44,
40,
-39,
-36,
0,
0,
0,
37,
153,
61,
173,
186,
-151,
89,
-75,
-211,
0,
0,
0,
-242,
-64,
215,
-135,
-86,
175,
-3,
-8,
67,
0,
0,
0,
0,
0,
0,
0,
0,
0,
0,
0,
0,
0,
0,
0,
0,
0,
0,
0,
0,
0,
0,
0,
0,
0,
0,
0,
0,
0,
0,
0,
0,
0,
0,
0,
0,
0,
0,
0,
-178,
-275,
485,
3,
-130,
62,
-13,
41,
2,
0,
0,
0,
285,
47,
292,
37,
-43,
53,
40,
-29,
51,
0,
0,
0,
-37,
58,
23,
86,
262,
142,
-60,
-268,
-100,
0,
0,
0,
191,
122,
238,
-164,
-32,
-118,
-60,
-78,
-42,
0,
0,
0,
30,
-19,
-11,
-255,
-108,
-159,
271,
81,
216,
0,
0,
0,
0,
0,
0,
0,
0,
0,
0,
0,
0,
0,
0,
0,
10,
3,
-58,
273,
162,
4,
-319,
-120,
21,
0,
0,
0,
0,
0,
0,
0,
0,
0,
0,
0,
0,
0,
0,
0,
0,
0,
0,
0,
0,
0,
0,
0,
0,
0,
0,
0,
0,
0,
0,
0,
0,
0,
0,
0,
0,
0,
0,
0,
-165,
-180,
-98,
116,
186,
36,
35,
20,
15,
0,
0,
0,
-50,
-63,
-75,
198,
198,
153,
69,
111,
68,
0,
0,
0,
-285,
85,
231,
93,
-23,
-77,
177,
8,
-65,
0,
0,
0,
166,
98,
-134,
218,
74,
-92,
-211,
-62,
98,
0,
0,
0,
128,
-106,
-187,
-39,
-10,
331,
-7,
62,
423,
0,
0,
0,
-49,
-46,
28,
-38,
-89,
11,
358,
127,
257,
0,
0,
0,
109,
244,
-151,
58,
195,
-200,
-5,
145,
-55,
0,
0,
0,
0,
0,
0,
0,
0,
0,
0,
0,
0,
0,
0,
0,
254,
162,
230,
80,
55,
58,
11,
35,
-39,
0,
0,
0,
-145,
-85,
122,
120,
11,
-13,
485,
33,
-1,
0,
0,
0,
0,
0,
0,
0,
0,
0,
0,
0,
0,
0,
0,
0,
90,
70,
18,
208,
191,
89,
88,
13,
70,
0,
0,
0,
0,
0,
0,
0,
0,
0,
0,
0,
0,
0,
0,
0,
380,
108,
91,
137,
-70,
-97,
-9,
-49,
-65,
0,
0,
0,
365,
-300,
-12,
133,
-235,
-4,
-5,
115,
-3,
0,
0,
0,
-2,
81,
-103,
124,
351,
-269,
-89,
-3,
3,
0,
0,
0,
0,
25,
4,
15,
-81,
12,
337,
35,
298,
0,
0,
0,
6,
22,
-24,
-12,
70,
182,
-35,
16,
345,
0,
0,
0,
0,
0,
0,
0,
0,
0,
0,
0,
0,
0,
0,
0,
5,
-83,
78,
-114,
-102,
150,
-128,
-132,
292,
0,
0,
0,
-3,
207,
-182,
28,
264,
-314,
-10,
-13,
13,
0,
0,
0,
13,
-243,
264,
-58,
-188,
214,
-5,
-19,
-5,
0,
0,
0,
265,
223,
183,
-88,
-58,
-62,
-116,
-108,
-61,
0,
0,
0,
-162,
110,
26,
-202,
285,
161,
75,
-102,
-145,
0,
0,
0,
0,
0,
0,
0,
0,
0,
0,
0,
0,
0,
0,
0,
0,
0,
0,
0,
0,
0,
0,
0,
0,
0,
0,
0,
13,
179,
-126,
29,
248,
-253,
-46,
112,
-96,
0,
0,
0,
252,
117,
221,
204,
89,
110,
31,
39,
47,
0,
0,
0,
-174,
-318,
-59,
129,
305,
-63,
-12,
-29,
14,
0,
0,
0,
92,
81,
143,
153,
98,
38,
203,
54,
-20,
0,
0,
0,
0,
0,
0,
0,
0,
0,
0,
0,
0,
0,
0,
0,
0,
0,
0,
0,
0,
0,
0,
0,
0,
0,
0,
0,
-115,
-74,
-54,
44,
26,
65,
148,
171,
233,
0,
0,
0,
160,
73,
127,
-193,
-66,
-109,
-94,
-5,
-82,
0,
0,
0,
0,
0,
0,
0,
0,
0,
0,
0,
0,
0,
0,
0,
146,
73,
136,
194,
151,
137,
81,
148,
68,
0,
0,
0,
198,
212,
162,
-139,
-93,
-127,
-45,
-54,
-111,
0,
0,
0,
0,
0,
0,
0,
0,
0,
0,
0,
0,
0,
0,
0,
254,
186,
312,
-4,
-62,
-56,
-7,
-34,
-40,
0,
0,
0,
-181,
-114,
-152,
0,
-6,
19,
61,
3,
65,
0,
0,
0,
0,
0,
0,
0,
0,
0,
0,
0,
0,
0,
0,
0,
3,
-227,
241,
9,
-221,
252,
4,
-53,
70,
0,
0,
0,
298,
136,
250,
19,
-141,
-45,
-56,
-73,
-115,
0,
0,
0,
358,
-178,
-161,
156,
-130,
-23,
-26,
4,
21,
0,
0,
0,
0,
0,
0,
0,
0,
0,
0,
0,
0,
0,
0,
0,
0,
0,
0,
0,
0,
0,
0,
0,
0,
0,
0,
0,
67,
97,
91,
176,
181,
126,
57,
59,
40,
0,
0,
0,
0,
0,
0,
0,
0,
0,
0,
0,
0,
0,
0,
0,
0,
0,
0,
0,
0,
0,
0,
0,
0,
0,
0,
0,
-215,
-132,
-127,
196,
245,
54,
26,
124,
-68,
0,
0,
0,
0,
0,
0,
0,
0,
0,
0,
0,
0,
0,
0,
0,
0,
0,
0,
0,
0,
0,
0,
0,
0,
0,
0,
0,
-74,
18,
-16,
-119,
-2,
149,
-181,
-39,
207,
0,
0,
0,
150,
43,
-392,
-68,
78,
-16,
-25,
1,
36,
0,
0,
0,
-290,
168,
89,
-175,
237,
41,
88,
39,
-55,
0,
0,
0,
280,
280,
66,
139,
99,
41,
-10,
30,
-23,
0,
0,
0,
0,
0,
0,
0,
0,
0,
0,
0,
0,
0,
0,
0,
413,
101,
-173,
132,
6,
-106,
100,
-70,
-89,
0,
0,
0,
190,
297,
26,
-161,
-241,
-114,
-24,
75,
-33,
0,
0,
0,
-23,
-30,
17,
73,
-117,
-81,
442,
-20,
-86,
0,
0,
0,
172,
395,
48,
272,
319,
110,
136,
48,
179,
0,
0,
0,
1,
38,
36,
-160,
-93,
-1,
504,
-99,
-37,
0,
0,
0,
208,
351,
-62,
-245,
-366,
19,
61,
67,
-9,
0,
0,
0,
-147,
-18,
-139,
-77,
37,
-84,
-118,
20,
-75,
0,
0,
0,
274,
-271,
19,
170,
-184,
-1,
-14,
29,
-53,
0,
0,
0,
0,
0,
0,
0,
0,
0,
0,
0,
0,
0,
0,
0,
27,
351,
-17,
-46,
-432,
20,
-2,
115,
-4,
0,
0,
0,
-261,
212,
-9,
-230,
194,
62,
-26,
0,
-24,
0,
0,
0,
-148,
-15,
-166,
-38,
27,
-35,
-95,
-14,
-88,
0,
0,
0,
110,
-57,
89,
260,
-229,
-16,
401,
-265,
-72,
0,
0,
0,
317,
25,
337,
83,
-81,
87,
117,
-8,
79,
0,
0,
0,
85,
-74,
-150,
-318,
228,
107,
20,
-9,
-32,
0,
0,
0,
-16,
223,
-182,
-67,
146,
-165,
-41,
107,
-69,
0,
0,
0,
149,
160,
123,
236,
236,
134,
-23,
-115,
-76,
0,
0,
0,
26,
-54,
8,
9,
-330,
319,
-8,
-133,
173,
0,
0,
0,
0,
0,
0,
0,
0,
0,
0,
0,
0,
0,
0,
0,
17,
196,
-194,
37,
258,
-260,
-33,
-21,
45,
0,
0,
0,
-10,
-66,
-76,
-146,
-205,
-8,
46,
30,
394,
0,
0,
0,
363,
-115,
30,
264,
-162,
21,
261,
-74,
34,
0,
0,
0,
-140,
230,
-27,
-227,
209,
5,
-63,
128,
-41,
0,
0,
0,
-39,
-165,
119,
49,
172,
-147,
243,
378,
169,
0,
0,
0,
303,
50,
198,
-180,
-124,
-88,
-55,
31,
-56,
0,
0,
0,
376,
-206,
-16,
24,
-143,
36,
56,
-62,
-8,
0,
0,
0,
248,
77,
128,
208,
59,
152,
111,
62,
128,
0,
0,
0,
-26,
-5,
-20,
-118,
-163,
-133,
221,
169,
195,
0,
0,
0,
67,
32,
23,
101,
55,
-91,
202,
173,
60,
0,
0,
0,
0,
0,
0,
0,
0,
0,
0,
0,
0,
0,
0,
0,
20,
203,
29,
-2,
165,
10,
76,
215,
67,
0,
0,
0,
-44,
-124,
157,
-2,
-143,
153,
-15,
-111,
393,
0,
0,
0,
-122,
-173,
-202,
219,
172,
94,
343,
188,
195,
0,
0,
0,
179,
29,
41,
153,
-28,
-6,
247,
31,
14,
0,
0,
0,
19,
63,
123,
-51,
-21,
115,
154,
159,
104,
0,
0,
0,
626,
100,
541,
-24,
-144,
-49,
-262,
-107,
-190,
0,
0,
0,
308,
117,
259,
214,
-5,
134,
138,
-109,
145,
0,
0,
0,
226,
-172,
36,
351,
-330,
89,
-146,
140,
-31,
0,
0,
0,
118,
287,
163,
84,
164,
161,
39,
-22,
60,
0,
0,
0,
-153,
339,
-286,
-10,
71,
-95,
81,
-216,
233,
0,
0,
0,
0,
0,
0,
0,
0,
0,
0,
0,
0,
0,
0,
0,
98,
65,
-30,
200,
140,
90,
206,
35,
73,
0,
0,
0,
0,
0,
0,
0,
0,
0,
0,
0,
0,
0,
0,
0,
177,
116,
94,
-144,
-204,
-66,
115,
88,
61,
0,
0,
0,
29,
18,
-98,
158,
289,
-124,
199,
260,
-109,
0,
0,
0,
-144,
-48,
-148,
-87,
-21,
-67,
118,
19,
103,
0,
0,
0,
0,
0,
0,
0,
0,
0,
0,
0,
0,
0,
0,
0,
23,
-107,
47,
232,
268,
147,
117,
250,
102,
0,
0,
0,
-42,
1,
-80,
63,
-28,
23,
259,
-3,
245,
0,
0,
0,
142,
66,
188,
129,
39,
90,
-119,
-224,
-82,
0,
0,
0,
502,
-113,
-38,
-118,
-110,
16,
55,
-21,
-72,
0,
0,
0,
249,
-200,
26,
345,
-355,
-2,
44,
-18,
-2,
0,
0,
0,
-25,
7,
-17,
45,
360,
-334,
-29,
83,
-127,
0,
0,
0,
0,
0,
0,
0,
0,
0,
0,
0,
0,
0,
0,
0,
208,
35,
222,
-174,
-92,
-150,
-10,
37,
-22,
0,
0,
0,
-158,
-148,
-76,
172,
57,
-88,
245,
152,
27,
0,
0,
0,
0,
0,
0,
0,
0,
0,
0,
0,
0,
0,
0,
0,
-47,
-43,
-59,
-47,
-42,
-41,
-70,
-49,
-44,
0,
0,
0,
0,
0,
0,
0,
0,
0,
0,
0,
0,
0,
0,
0,
0,
0,
0,
0,
0,
0,
0,
0,
0,
0,
0,
0}
