short group_3_0_weights[768] = {-116,
-198,
324,
-127,
-271,
410,
-103,
-145,
244,
0,
0,
0,
-80,
-55,
-22,
-182,
-195,
-102,
-74,
-136,
-10,
0,
0,
0,
-56,
-66,
-29,
-98,
-142,
-77,
-27,
-115,
-63,
0,
0,
0,
493,
-316,
-649,
2,
443,
193,
-383,
-92,
411,
0,
0,
0,
-26,
-68,
-92,
196,
313,
164,
-142,
-67,
-70,
0,
0,
0,
-204,
-345,
-122,
177,
-19,
42,
209,
152,
135,
0,
0,
0,
222,
17,
-227,
68,
221,
-359,
11,
173,
-193,
0,
0,
0,
-143,
43,
146,
90,
283,
139,
26,
125,
27,
0,
0,
0,
269,
117,
45,
528,
188,
218,
252,
269,
175,
0,
0,
0,
57,
39,
72,
147,
144,
88,
235,
341,
251,
0,
0,
0,
403,
471,
-88,
334,
381,
-161,
-6,
-58,
18,
0,
0,
0,
-39,
-69,
-53,
-88,
-204,
-77,
-53,
-110,
-76,
0,
0,
0,
227,
223,
331,
309,
435,
182,
160,
62,
95,
0,
0,
0,
41,
88,
1,
161,
143,
194,
62,
113,
80,
0,
0,
0,
-11,
-86,
-38,
-125,
-214,
-101,
-25,
-108,
8,
0,
0,
0,
-318,
-223,
-125,
-68,
-136,
-131,
491,
312,
250,
0,
0,
0,
-139,
-114,
-59,
-141,
-265,
-76,
-74,
-152,
-35,
0,
0,
0,
-123,
50,
-85,
176,
307,
-425,
215,
194,
-447,
0,
0,
0,
292,
169,
85,
457,
295,
78,
139,
40,
-17,
0,
0,
0,
0,
279,
308,
84,
-171,
-211,
117,
-139,
-172,
0,
0,
0,
-18,
8,
5,
273,
203,
126,
299,
147,
207,
0,
0,
0,
-10,
-56,
-65,
-186,
-201,
-110,
-70,
-33,
-34,
0,
0,
0,
-341,
-277,
-317,
116,
113,
125,
147,
208,
68,
0,
0,
0,
-95,
-106,
-64,
-163,
-156,
-74,
-81,
-47,
-84,
0,
0,
0,
-160,
-158,
-103,
-283,
-260,
-130,
-198,
-231,
-73,
0,
0,
0,
246,
334,
-6,
458,
654,
2,
90,
189,
166,
0,
0,
0,
203,
104,
116,
-208,
-248,
-165,
74,
-52,
126,
0,
0,
0,
183,
393,
257,
-75,
108,
93,
-288,
-230,
-412,
0,
0,
0,
-125,
150,
307,
-178,
-376,
-179,
237,
-28,
-153,
0,
0,
0,
227,
426,
114,
-275,
-91,
-127,
-268,
-232,
40,
0,
0,
0,
99,
-445,
200,
396,
-535,
67,
172,
-240,
88,
0,
0,
0,
85,
304,
-220,
-84,
477,
-96,
-369,
-11,
-131,
0,
0,
0,
440,
302,
244,
-20,
-102,
-198,
-283,
-121,
-262,
0,
0,
0,
-57,
-24,
-43,
-76,
-113,
-75,
-183,
-274,
-44,
0,
0,
0,
-289,
-129,
408,
-351,
-143,
510,
-259,
117,
160,
0,
0,
0,
-451,
-170,
-29,
-291,
97,
326,
-185,
181,
102,
0,
0,
0,
235,
144,
-78,
472,
-172,
-458,
145,
-284,
-37,
0,
0,
0,
592,
65,
-29,
344,
65,
21,
56,
19,
18,
0,
0,
0,
314,
-134,
-328,
232,
-65,
-270,
-56,
19,
68,
0,
0,
0,
-300,
-24,
218,
-508,
231,
253,
-277,
224,
92,
0,
0,
0,
253,
169,
-142,
876,
-215,
-745,
-1,
-299,
43,
0,
0,
0,
-32,
-48,
-84,
142,
233,
65,
12,
350,
297,
0,
0,
0,
-575,
479,
55,
-233,
-194,
406,
840,
-403,
-552,
0,
0,
0,
225,
199,
151,
176,
264,
119,
30,
74,
3,
0,
0,
0,
31,
197,
611,
187,
26,
680,
162,
-29,
-136,
0,
0,
0,
265,
234,
135,
-69,
353,
206,
44,
68,
151,
0,
0,
0,
84,
178,
228,
54,
40,
45,
-15,
-3,
142,
0,
0,
0,
-339,
-224,
-220,
154,
109,
152,
108,
51,
25,
0,
0,
0,
173,
193,
260,
-20,
413,
350,
-132,
48,
151,
0,
0,
0,
183,
149,
7,
195,
177,
89,
240,
179,
74,
0,
0,
0,
-15,
-1,
259,
-244,
25,
409,
-215,
-191,
168,
0,
0,
0,
-363,
-295,
-209,
-68,
-85,
48,
323,
243,
301,
0,
0,
0,
-176,
-45,
182,
202,
276,
281,
254,
129,
83,
0,
0,
0,
-50,
-140,
-39,
-177,
-184,
-118,
-74,
-21,
-27,
0,
0,
0,
136,
99,
84,
232,
214,
200,
147,
212,
148,
0,
0,
0,
-77,
-104,
-18,
-264,
-323,
-137,
-56,
-124,
19,
0,
0,
0,
187,
293,
87,
184,
304,
305,
109,
84,
136,
0,
0,
0,
163,
26,
91,
234,
133,
63,
237,
244,
29,
0,
0,
0,
-174,
-37,
-63,
397,
321,
292,
-130,
-272,
-218,
0,
0,
0,
109,
161,
53,
-78,
562,
605,
-156,
211,
97,
0,
0,
0,
-41,
-75,
-51,
-6,
-227,
-127,
-33,
-75,
-122,
0,
0,
0,
-75,
-86,
-15,
-82,
-207,
-6,
0,
-107,
-113,
0,
0,
0,
-190,
-132,
-243,
-167,
102,
78,
198,
464,
120,
0,
0,
0,
138,
248,
244,
263,
261,
143,
236,
98,
22,
0,
0,
0}
